digraph Tree {
node [shape=box] ;
0 [label="attribute6 <= 44817.5\ngini = 0.002\nsamples = 99595\nvalue = [99509, 86]"] ;
1 [label="attribute6 <= 19427.5\ngini = 0.002\nsamples = 99560\nvalue = [99475, 85]"] ;
0 -> 1 [labeldistance=2.5, labelangle=45, headlabel="True"] ;
7 [label="gini = 0.001\nsamples = 53382\nvalue = [53351, 31]"] ;
1 -> 7 ;
8 [label="attribute6 <= 19428.5\ngini = 0.002\nsamples = 46178\nvalue = [46124, 54]"] ;
1 -> 8 ;
9 [label="gini = 0.0\nsamples = 1\nvalue = [0, 1]"] ;
8 -> 9 ;
10 [label="attribute6 <= 25212.5\ngini = 0.002\nsamples = 46177\nvalue = [46124, 53]"] ;
8 -> 10 ;
11 [label="attribute6 <= 25211.5\ngini = 0.004\nsamples = 11470\nvalue = [11446, 24]"] ;
10 -> 11 ;
13 [label="attribute1 <= 123408.0\ngini = 0.004\nsamples = 11464\nvalue = [11441, 23]"] ;
11 -> 13 ;
19 [label="attribute6 <= 21951.5\ngini = 0.004\nsamples = 11408\nvalue = [11386, 22]"] ;
13 -> 19 ;
23 [label="gini = 0.001\nsamples = 4567\nvalue = [4564, 3]"] ;
19 -> 23 ;
24 [label="attribute6 <= 21958.5\ngini = 0.006\nsamples = 6841\nvalue = [6822, 19]"] ;
19 -> 24 ;
25 [label="attribute1 <= 118547.0\ngini = 0.089\nsamples = 43\nvalue = [41, 2]"] ;
24 -> 25 ;
27 [label="attribute6 <= 21957.5\ngini = 0.046\nsamples = 42\nvalue = [41, 1]"] ;
25 -> 27 ;
29 [label="gini = 0.0\nsamples = 40\nvalue = [40, 0]"] ;
27 -> 29 ;
30 [label="attribute1 <= 54398.5\ngini = 0.5\nsamples = 2\nvalue = [1, 1]"] ;
27 -> 30 ;
31 [label="gini = 0.0\nsamples = 1\nvalue = [0, 1]"] ;
30 -> 31 ;
32 [label="gini = 0.0\nsamples = 1\nvalue = [1, 0]"] ;
30 -> 32 ;
28 [label="gini = 0.0\nsamples = 1\nvalue = [0, 1]"] ;
25 -> 28 ;
26 [label="attribute6 <= 25172.5\ngini = 0.005\nsamples = 6798\nvalue = [6781, 17]"] ;
24 -> 26 ;
33 [label="gini = 0.005\nsamples = 6725\nvalue = [6709, 16]"] ;
26 -> 33 ;
34 [label="attribute6 <= 25173.5\ngini = 0.027\nsamples = 73\nvalue = [72, 1]"] ;
26 -> 34 ;
35 [label="attribute1 <= 18258.5\ngini = 0.5\nsamples = 2\nvalue = [1, 1]"] ;
34 -> 35 ;
37 [label="gini = 0.0\nsamples = 1\nvalue = [1, 0]"] ;
35 -> 37 ;
38 [label="gini = 0.0\nsamples = 1\nvalue = [0, 1]"] ;
35 -> 38 ;
36 [label="gini = 0.0\nsamples = 71\nvalue = [71, 0]"] ;
34 -> 36 ;
20 [label="attribute6 <= 19690.5\ngini = 0.035\nsamples = 56\nvalue = [55, 1]"] ;
13 -> 20 ;
21 [label="gini = 0.0\nsamples = 1\nvalue = [0, 1]"] ;
20 -> 21 ;
22 [label="gini = 0.0\nsamples = 55\nvalue = [55, 0]"] ;
20 -> 22 ;
14 [label="attribute1 <= 99534.5\ngini = 0.278\nsamples = 6\nvalue = [5, 1]"] ;
11 -> 14 ;
15 [label="gini = 0.0\nsamples = 4\nvalue = [4, 0]"] ;
14 -> 15 ;
16 [label="attribute1 <= 108130.0\ngini = 0.5\nsamples = 2\nvalue = [1, 1]"] ;
14 -> 16 ;
17 [label="gini = 0.0\nsamples = 1\nvalue = [0, 1]"] ;
16 -> 17 ;
18 [label="gini = 0.0\nsamples = 1\nvalue = [1, 0]"] ;
16 -> 18 ;
12 [label="gini = 0.002\nsamples = 34707\nvalue = [34678, 29]"] ;
10 -> 12 ;
2 [label="attribute1 <= 14981.5\ngini = 0.056\nsamples = 35\nvalue = [34, 1]"] ;
0 -> 2 [labeldistance=2.5, labelangle=-45, headlabel="False"] ;
3 [label="attribute6 <= 44821.0\ngini = 0.375\nsamples = 4\nvalue = [3, 1]"] ;
2 -> 3 ;
5 [label="gini = 0.0\nsamples = 1\nvalue = [0, 1]"] ;
3 -> 5 ;
6 [label="gini = 0.0\nsamples = 3\nvalue = [3, 0]"] ;
3 -> 6 ;
4 [label="gini = 0.0\nsamples = 31\nvalue = [31, 0]"] ;
2 -> 4 ;
}